SVM-light Version V6.20
0 # kernel type
3 # kernel parameter -d 
1 # kernel parameter -g 
1 # kernel parameter -s 
1 # kernel parameter -r 
empty# kernel parameter -u 
47 # highest feature index 
44 # number of training documents 
2 # number of support vectors plus 1 
0 # threshold b, each following line is a SV (starting with alpha*y)
1 1:-0.0023120937 2:-0.19545481 3:0.0026693528 4:-0.1732557 5:-0.026146499 11:-0.077149391 12:-0.14366381 13:0.10676288 14:-0.17916837 15:-0.13006803 16:0.09532138 17:-0.10544404 18:-0.15221687 19:-0.32332018 20:0.095874608 21:0.49254009 22:-0.3876619 23:1.6254447 24:-0.0066243019 25:0.27650928 26:-0.11106316 27:0.33116624 28:0.38720894 29:0.25149998 30:-0.035535265 31:-0.064564854 32:0.23617449 33:0.25033394 34:0.0032137795 35:-0.059917938 36:0.083031788 37:0.60555106 38:-0.21018504 39:1.4739994 40:0.10789207 41:-0.01808054 42:-0.24477108 44:0.1049269 45:-0.3119106 46:-0.00772662 #
