SVM-light Version V6.20
0 # kernel type
3 # kernel parameter -d 
1 # kernel parameter -g 
1 # kernel parameter -s 
1 # kernel parameter -r 
empty# kernel parameter -u 
47 # highest feature index 
28 # number of training documents 
2 # number of support vectors plus 1 
0 # threshold b, each following line is a SV (starting with alpha*y)
1 1:0.0049883686 2:0.010464738 3:-0.0064744246 4:0.012508535 5:0.028368553 6:-0.014811034 7:-0.01703169 8:0.010912691 9:-0.0079723839 10:-0.00082109979 11:0.0063808803 12:-0.00017248353 13:-0.012105826 14:0.026662132 15:0.04429207 16:0.0092584984 17:-0.009985215 18:-0.010703241 19:-0.028982444 20:-6.8323134e-05 21:0.0035988332 22:0.18782671 23:0.0023485036 24:0.0048513175 25:-0.013314489 26:-0.011757425 27:0.0051592342 28:0.020145828 29:-0.0033761582 30:-0.0041172365 31:-0.011637538 32:-0.0058556837 33:-0.0039183544 34:0.013179018 35:0.019398656 36:0.0085014347 37:-0.010184153 38:-0.014505418 39:0.011174522 40:-0.00042140309 41:0.029375035 42:-0.024451725 43:-0.0093138246 44:-0.01155623 45:-0.0065645566 46:-0.010134667 #
