SVM-light Version V6.20
0 # kernel type
3 # kernel parameter -d 
1 # kernel parameter -g 
1 # kernel parameter -s 
1 # kernel parameter -r 
empty# kernel parameter -u 
47 # highest feature index 
5 # number of training documents 
2 # number of support vectors plus 1 
0 # threshold b, each following line is a SV (starting with alpha*y)
1 1:0.033679888 2:0.033992812 3:0.054720555 4:-0.010164084 5:0.034120478 11:0.027224772 12:0.03369651 13:0.057989791 14:0.0015108048 15:0.027535222 16:0.023472892 17:0.0077360761 18:-0.022108145 19:-0.052866746 20:0.023434797 21:0.13977523 22:0.15219952 23:0.1906016 24:0.16006389 25:0.048015635 26:0.0485873 27:0.046045568 28:0.049016528 29:0.055018447 30:0.061347876 31:0.06287355 32:0.061510723 33:0.015518417 34:0.022668138 35:0.029611457 36:0.018737033 37:0.13831614 38:0.1553487 39:0.18838054 40:0.16160995 41:-0.037220143 42:-0.047457892 44:-0.0017201456 45:0.00039062457 46:-0.0060306564 #
