SVM-light Version V6.20
0 # kernel type
3 # kernel parameter -d 
1 # kernel parameter -g 
1 # kernel parameter -s 
1 # kernel parameter -r 
empty# kernel parameter -u 
47 # highest feature index 
59 # number of training documents 
2 # number of support vectors plus 1 
0 # threshold b, each following line is a SV (starting with alpha*y)
1 1:-0.48226029 2:0.10716541 3:0.043624025 4:-0.70658815 5:-0.5297429 11:-0.074051484 12:-0.054618858 13:0.49026832 14:-0.27577704 15:-0.17749192 16:0.6291917 17:-0.21568248 18:-0.5948934 19:-0.43377131 20:0.63230127 21:0.015999109 22:-0.25834498 23:2.0329378 24:-0.13409293 25:0.28573629 26:-0.40496188 27:0.029992528 28:0.43031743 29:0.22124712 30:-0.27695811 31:-0.24581623 32:0.42122933 33:0.45177555 34:-0.13045326 35:0.64679897 36:-0.053565316 37:0.55465847 38:0.21844558 39:1.655056 40:0.15147159 41:-0.13917576 42:-0.50720119 44:0.060933646 45:0.033974998 46:-0.12178853 #
