SVM-light Version V6.20
0 # kernel type
3 # kernel parameter -d 
1 # kernel parameter -g 
1 # kernel parameter -s 
1 # kernel parameter -r 
empty# kernel parameter -u 
47 # highest feature index 
31 # number of training documents 
2 # number of support vectors plus 1 
0 # threshold b, each following line is a SV (starting with alpha*y)
1 1:-0.012399403 2:-0.025347814 3:0.019215029 4:-0.0099682081 5:0.044783697 6:0.0078504253 7:0.0018345886 8:0.0089769168 9:-0.0050863968 10:-0.012994863 11:-0.0040858951 12:0.016644292 13:-0.0062121418 14:-0.0070641409 15:0.045779064 16:0.01806381 17:-0.0036686631 18:0.009248198 19:-0.051190481 20:-0.015196064 21:-0.0039663343 22:0.19978428 23:-0.0091449842 24:-0.0083637116 25:-0.00086670474 26:0.012557841 27:-0.0030994997 28:0.015627095 29:0.023471033 30:0.0011574895 31:0.0043781302 32:-0.00038309197 33:-0.0027715615 34:0.018947549 35:0.039051514 36:0.00011531599 37:0.0026352974 38:-0.011843051 39:0.0035294013 40:0.0079950159 41:0.0009767107 42:-0.049256857 43:0.0015448696 44:-0.01267547 45:0.005316332 46:0.0018008919 #
