SVM-light Version V6.20
0 # kernel type
3 # kernel parameter -d 
1 # kernel parameter -g 
1 # kernel parameter -s 
1 # kernel parameter -r 
empty# kernel parameter -u 
47 # highest feature index 
5 # number of training documents 
2 # number of support vectors plus 1 
0 # threshold b, each following line is a SV (starting with alpha*y)
1 1:0.025897987 2:0.032352723 3:0.059136804 4:0.00084406207 5:0.026434548 11:0.03235738 12:0.033970237 13:0.064227141 14:0.00087675842 15:0.032984309 16:-0.00099758198 17:0.0083467634 18:0.0046911458 19:-0.02819201 20:-0.0009996295 21:0.14975841 22:0.1360836 23:0.16992772 24:0.13271774 25:0.061919224 26:0.065852672 27:0.060644925 28:0.065841958 29:0.060737036 30:0.070980817 31:0.074833237 32:0.071388051 33:0.0069228583 34:0.0057186293 35:0.0028696987 36:0.0057435315 37:0.1473065 38:0.13816556 39:0.1687468 40:0.13500436 41:-0.014901307 42:-0.022981985 44:-0.0015103978 45:-0.0042706965 46:0.0017577162 #
