SVM-light Version V6.20
0 # kernel type
3 # kernel parameter -d 
1 # kernel parameter -g 
1 # kernel parameter -s 
1 # kernel parameter -r 
empty# kernel parameter -u 
47 # highest feature index 
59 # number of training documents 
2 # number of support vectors plus 1 
0 # threshold b, each following line is a SV (starting with alpha*y)
1 1:-0.052576173 2:-0.22964528 3:-0.10128908 4:-0.2464402 5:-0.12997571 11:-0.074464783 12:-0.20684732 13:0.18991324 14:-0.37395763 15:-0.26188782 16:0.19388817 17:-0.15691559 18:-0.15934889 19:-0.37738895 20:0.19696349 21:0.43396541 22:-0.83338374 23:1.9902951 24:0.05873299 25:0.32296595 26:-0.45313469 27:0.47773579 28:0.63520169 29:0.38067719 30:-0.23219231 31:-0.22583161 32:0.48062712 33:0.52672988 34:-0.075572565 35:-0.12676571 36:0.16758589 37:0.83053732 38:-0.43189961 39:1.7092185 40:0.25864464 41:-0.05419565 42:-0.29436159 44:0.14958608 45:-0.41453844 46:-0.076764174 #
