SVM-light Version V6.20
0 # kernel type
3 # kernel parameter -d 
1 # kernel parameter -g 
1 # kernel parameter -s 
1 # kernel parameter -r 
empty# kernel parameter -u 
47 # highest feature index 
61 # number of training documents 
2 # number of support vectors plus 1 
0 # threshold b, each following line is a SV (starting with alpha*y)
1 1:-0.49333528 2:-0.17121959 3:0.22571684 4:-0.92077315 5:-0.56775683 11:0.13609256 12:0.47696063 13:0.69299936 14:0.12825945 15:-0.11484153 16:0.52458167 17:-0.13760862 18:-0.52555102 19:-0.16974516 20:0.51323539 21:0.20662916 22:-0.58859229 23:2.1723747 24:-0.19989625 25:0.006319602 26:-0.020647932 27:-0.035566051 28:0.21469297 29:0.19212855 30:-0.24116543 31:-0.71811295 32:0.80352724 33:0.50025326 34:-0.41141573 35:0.74398208 36:-0.20697454 37:0.31590328 38:0.073691711 39:1.4734586 40:0.37780532 41:-0.20947506 42:-0.55304366 44:0.094232298 45:-0.052531809 46:-0.176458 #
