SVM-light Version V6.20
0 # kernel type
3 # kernel parameter -d 
1 # kernel parameter -g 
1 # kernel parameter -s 
1 # kernel parameter -r 
empty# kernel parameter -u 
47 # highest feature index 
5 # number of training documents 
2 # number of support vectors plus 1 
0 # threshold b, each following line is a SV (starting with alpha*y)
1 1:0.029446783 2:0.034462906 3:0.063973889 4:-0.01284052 5:0.029895181 11:0.031659756 12:0.03707369 13:0.065372966 14:0.00057955662 15:0.03187193 16:0.018730534 17:0.011609856 18:-0.017602846 19:-0.045929246 20:0.01868315 21:0.13804384 22:0.14669256 23:0.18490852 24:0.15588991 25:0.048307732 26:0.053343531 27:0.046999946 28:0.052335318 29:0.063431188 30:0.068578027 31:0.061531428 32:0.070679404 33:0.011755944 34:0.019778291 35:0.028844576 36:0.015828464 37:0.1360646 38:0.15067773 39:0.18212764 40:0.15739292 41:-0.039900269 42:-0.043915223 44:-0.0011097288 45:0.0014732906 46:-0.004709241 #
