SVM-light Version V6.20
0 # kernel type
3 # kernel parameter -d 
1 # kernel parameter -g 
1 # kernel parameter -s 
1 # kernel parameter -r 
empty# kernel parameter -u 
47 # highest feature index 
28 # number of training documents 
2 # number of support vectors plus 1 
0 # threshold b, each following line is a SV (starting with alpha*y)
1 1:0.008519819 2:0.0074880142 3:0.00063328253 4:-0.0015666315 5:0.037399165 6:-0.0070229671 7:-0.010648485 8:-0.003384518 9:0.0046242592 10:0.013958262 11:-0.0054612276 12:-0.01344682 13:-0.030518714 14:-0.0030758085 15:0.04654403 16:-0.02066672 17:-0.0098118922 18:-0.015205604 19:-0.023949446 20:-0.017160283 21:-0.011936541 22:0.17802753 23:-0.015527373 24:-0.0093256058 25:-0.0065245195 26:-0.022531848 27:0.015578832 28:0.014578812 29:0.00060709345 30:-0.0091728466 31:0.011528822 32:-0.002573007 33:0.0040869853 34:0.0067733107 35:0.016528567 36:-0.0015491064 37:0.017453171 38:-0.0088392925 39:-0.021321397 40:-0.020115539 41:-0.00049345294 42:-0.019147309 43:-0.010413812 44:0.0010030421 45:-0.00035213848 46:0.006956113 #
