SVM-light Version V6.20
0 # kernel type
3 # kernel parameter -d 
1 # kernel parameter -g 
1 # kernel parameter -s 
1 # kernel parameter -r 
empty# kernel parameter -u 
47 # highest feature index 
29 # number of training documents 
2 # number of support vectors plus 1 
0 # threshold b, each following line is a SV (starting with alpha*y)
1 1:0.010198057 2:-0.0081266621 3:0.0032625017 4:0.0030672746 5:0.036170386 6:0.0027252513 7:0.010031011 8:0.009313928 9:-0.0085608596 10:-0.012678744 11:-0.0071461271 12:-0.0052089002 13:-0.014501531 14:-0.012335974 15:0.046505645 16:0.01116213 17:-0.0021459584 18:-0.0078687733 19:-0.043489881 20:0.019416425 21:0.007124648 22:0.19502369 23:-0.010133158 24:-0.01322599 25:0.0016494985 26:0.0088308714 27:0.023433663 28:-0.0044130925 29:-0.010233942 30:-6.6856264e-05 31:0.019787053 32:0.013415193 33:-0.0038572422 34:0.0013561571 35:0.037072327 36:-0.02217103 37:0.0038123389 38:-0.011751738 39:-0.0076695979 40:0.016072566 41:-0.012139427 42:-0.038314484 43:-0.015582022 44:0.012294356 45:0.0012201421 46:0.0027411645 #
