SVM-light Version V6.20
0 # kernel type
3 # kernel parameter -d 
1 # kernel parameter -g 
1 # kernel parameter -s 
1 # kernel parameter -r 
empty# kernel parameter -u 
47 # highest feature index 
38 # number of training documents 
2 # number of support vectors plus 1 
0 # threshold b, each following line is a SV (starting with alpha*y)
1 1:-0.087323181 2:-0.13211519 3:0.10774881 4:-0.19112198 5:-0.085453704 11:-0.08499857 12:-0.11177505 13:-0.050602168 14:-0.039403822 15:-0.10614473 16:0.13167556 17:-0.18899089 18:-0.016853532 19:-0.18289025 20:0.13316479 21:0.30190185 22:-0.18122607 23:1.9137185 24:0.10873146 25:0.44600955 26:0.096315756 27:0.23301846 28:0.18126714 29:0.47752124 30:-0.017630136 31:-0.090827398 32:0.1877342 33:0.19111651 34:-0.004814622 35:0.1566591 36:-0.21404855 37:0.28691062 38:-0.10561745 39:1.5841864 40:0.052807841 41:-0.11701722 42:-0.20593916 44:0.11164666 45:-0.42529696 46:-0.37829223 #
