SVM-light Version V6.20
0 # kernel type
3 # kernel parameter -d 
1 # kernel parameter -g 
1 # kernel parameter -s 
1 # kernel parameter -r 
empty# kernel parameter -u 
47 # highest feature index 
47 # number of training documents 
2 # number of support vectors plus 1 
0 # threshold b, each following line is a SV (starting with alpha*y)
1 1:-0.28689823 2:0.078909025 3:0.16249414 4:-0.54859108 5:-0.30553803 11:-0.080965102 12:0.018696913 13:0.32933486 14:-0.19731428 15:-0.11507098 16:0.48152143 17:-0.16942839 18:-0.51275826 19:-0.4322539 20:0.48165983 21:0.17175668 22:-0.046200253 23:1.6186202 24:0.0055953218 25:0.23022254 26:-0.19408388 27:0.015889982 28:0.23028068 29:0.20621289 30:-0.066325866 31:-0.100885 32:0.21220504 33:0.21534549 34:0.029310705 35:0.469924 36:-0.036789149 37:0.36930093 38:0.17964032 39:1.4682101 40:0.17454693 41:-0.13281189 42:-0.46353886 44:0.077536941 45:0.022135012 46:-0.088487215 #
