SVM-light Version V6.20
0 # kernel type
3 # kernel parameter -d 
1 # kernel parameter -g 
1 # kernel parameter -s 
1 # kernel parameter -r 
empty# kernel parameter -u 
47 # highest feature index 
4 # number of training documents 
2 # number of support vectors plus 1 
0 # threshold b, each following line is a SV (starting with alpha*y)
1 1:0.023858171 2:0.032830078 3:0.066052951 4:0.0051330482 5:0.024409821 11:0.031992678 12:0.035807651 13:0.0710802 14:0.0061538168 15:0.032795489 16:0.0037041251 17:0.0025095672 18:-0.00011020499 19:-0.023061959 20:0.0036951001 21:0.14653334 22:0.13400711 23:0.16876444 24:0.13073356 25:0.079977788 26:0.083552249 27:0.070454277 28:0.079929881 29:0.073576905 30:0.079659149 31:0.084039055 32:0.078145236 33:0.011372075 34:0.009887632 35:0.0083524045 36:0.008515141 37:0.14326786 38:0.13584358 39:0.1673705 40:0.13080832 41:-0.017580107 42:-0.019128494 44:-0.0057257344 45:-0.012828977 46:-0.009473308 #
