SVM-light Version V6.20
0 # kernel type
3 # kernel parameter -d 
1 # kernel parameter -g 
1 # kernel parameter -s 
1 # kernel parameter -r 
empty# kernel parameter -u 
47 # highest feature index 
60 # number of training documents 
2 # number of support vectors plus 1 
0 # threshold b, each following line is a SV (starting with alpha*y)
1 1:-0.19256423 2:-0.14279796 3:0.15719305 4:-0.3193849 5:-0.17451461 11:-0.092415549 12:-0.14234492 13:-0.1672956 14:-0.085339189 15:-0.15301844 16:0.23523097 17:-0.19181871 18:0.0018121301 19:-0.20075265 20:0.24338202 21:0.18212891 22:-0.53292173 23:2.3894677 24:0.20102209 25:0.50394428 26:-0.0038467995 27:0.30546916 28:0.24650998 29:0.6929906 30:-0.25541586 31:-0.22539946 32:0.43541884 33:0.42224231 34:-0.0042663077 35:0.32946983 36:-0.42348868 37:0.43300635 38:-0.30884641 39:1.6830155 40:-0.011760215 41:-0.14579189 42:-0.2759912 44:0.17744192 45:-0.54603946 46:-0.45543155 #
