SVM-light Version V6.20
0 # kernel type
3 # kernel parameter -d 
1 # kernel parameter -g 
1 # kernel parameter -s 
1 # kernel parameter -r 
empty# kernel parameter -u 
47 # highest feature index 
28 # number of training documents 
2 # number of support vectors plus 1 
0 # threshold b, each following line is a SV (starting with alpha*y)
1 1:0.019862087 2:-0.0078869918 3:0.0055786041 4:-0.021435631 5:0.040980928 6:-0.00066056073 7:-0.0012878458 8:0.0054139621 9:0.0090590473 10:-0.016193338 11:-0.018567484 12:-0.0062252968 13:-0.0038941659 14:0.026657861 15:0.037942871 16:0.0064394753 17:0.018838219 18:-0.0013866754 19:-0.055141937 20:0.0001444863 21:0.0055751535 22:0.19443804 23:-0.0049623414 24:-0.0078007728 25:0.021013916 26:0.0010172926 27:-0.011020661 28:0.003773042 29:-0.015931899 30:0.0078481194 31:-0.0042255549 32:0.00085306179 33:-0.011511754 34:-0.0097338622 35:0.037415419 36:0.00014786478 37:-0.0016187226 38:0.0026403368 39:0.015352718 40:0.011762616 41:-0.0015632996 42:-0.052287515 43:-0.023696093 44:0.0099237571 45:0.0047487123 46:-0.010018747 #
