SVM-light Version V6.20
0 # kernel type
3 # kernel parameter -d 
1 # kernel parameter -g 
1 # kernel parameter -s 
1 # kernel parameter -r 
empty# kernel parameter -u 
47 # highest feature index 
5 # number of training documents 
2 # number of support vectors plus 1 
0 # threshold b, each following line is a SV (starting with alpha*y)
1 1:0.032467324 2:0.033393636 3:0.055384226 4:-0.011471363 5:0.032966699 11:0.03758949 12:0.034780789 13:0.057805333 14:0.0045916904 15:0.038144428 16:0.022594394 17:0.0097315144 18:-0.025704233 19:-0.039669815 20:0.022550374 21:0.13768302 22:0.14161064 23:0.1900419 24:0.15207276 25:0.05605901 26:0.062249381 27:0.049291115 28:0.06106161 29:0.06137073 30:0.066797927 31:0.063166343 32:0.069004133 33:0.015689407 34:0.023635805 35:0.032626882 36:0.018928634 37:0.13473542 38:0.14538138 39:0.18670852 40:0.15247218 41:-0.033852965 42:-0.036172345 44:-0.0049890834 45:-0.0065134987 46:-0.015089638 #
