SVM-light Version V6.20
0 # kernel type
3 # kernel parameter -d 
1 # kernel parameter -g 
1 # kernel parameter -s 
1 # kernel parameter -r 
empty# kernel parameter -u 
47 # highest feature index 
59 # number of training documents 
2 # number of support vectors plus 1 
0 # threshold b, each following line is a SV (starting with alpha*y)
1 1:-0.68799108 2:0.11648341 3:0.39521429 4:-1.1737632 5:-0.67074364 11:0.24107657 12:0.31010726 13:0.17431784 14:0.26811105 15:0.12073896 16:0.55127954 17:-0.045017637 18:-0.53471631 19:-0.28613853 20:0.55297452 21:-0.10650066 22:-0.92196304 23:2.6044073 24:-0.056048773 25:0.060693856 26:0.1640678 27:-0.43995446 28:0.36260056 29:0.69800752 30:-0.6288439 31:-0.54408741 32:0.72910517 33:0.64586121 34:-0.3145436 35:0.85484481 36:-0.48675352 37:0.35582206 38:-0.18348259 39:1.7652929 40:0.48659942 41:-0.19199954 42:-0.35068211 44:0.061367635 45:-0.27451712 46:-0.51162034 #
